[0.5823 -0.58209 0.47856 -0.50428 -0.31239 -0.52794 0.50445 0.25145 0.52721 0.003611 -0.0849 0.53915 -0.2699 0.29903 0.53112 -0.033453 -0.48437 0.29058 -0.49296 -0.27409 -0.1427 0.36423 -0.29051 0.095507 -0.16736 -0.30191 -0.093355 0.10664 0.2489 -0.50234 -0.57533 0.29102 0.34676 0.2587 -0.53394 -0.52276 -0.20098 0.55041 0.19179 0.41227 -0.45004 0.50068 0.060738 0.14418 0.022425 0.48356 0.31783 -0.013034 -0.17238 -0.015068 -0.037126 -0.015655 -0.56371 -0.015346 -0.15231 0.16502 0.15131 -0.20788 -0.082993 -0.47293 0.52493 -0.09893 0.2403 -0.33928 -0.43006 -0.50578 -0.30498 -0.468 0.32386 0.18733 0.44737 -0.12028 0.25018 -0.29741 -0.22927 0.40295 0.081901 -0.47977 -0.49247 0.38907 -0.39489;
 -0.04392 -0.4231 -0.17725 0.48688 -0.22004 0.28904 0.31675 0.020293 -0.36687 0.44991 0.3825 0.58084 -0.076314 0.38335 -0.24712 0.40557 -0.51053 0.010061 0.49769 -0.32458 0.39438 0.29351 -0.6273 0.19647 0.13063 0.042632 0.30958 -0.018502 -0.48084 0.24045 0.27061 -0.44713 0.38447 -0.45378 -0.65665 -0.55502 0.66752 -0.025214 -0.17001 -0.57947 0.013683 0.4548 -0.45397 -0.534 -0.56152 0.28522 0.042932 0.74884 -0.47013 0.075737 0.30988 -0.47145 -0.19226 0.23255 0.062581 -0.25132 -0.089 0.11439 -0.51147 -0.04221 0.10811 -0.33873 0.109 -0.35389 -0.38053 -0.10972 -0.16397 -0.011614 -0.167 0.19354 0.019058 0.014128 0.40342 0.60873 -0.2116 -0.49481 -0.4647 0.032854 -0.63947 0.48673 -0.010871;
 -0.51445 -0.32843 -0.5255 0.10258 0.32636 0.14997 -0.45498 -0.6177 -0.48457 -0.41037 0.13982 -0.17086 0.28434 -0.25411 0.35985 -0.43448 0.050336 -0.41069 -0.25231 -0.36436 0.39745 -0.51854 0.20211 -0.25337 -0.41737 0.18934 -0.022735 -0.15796 0.1846 0.49795 0.57048 0.64327 0.27229 0.51189 -0.015869 0.41551 0.61266 0.18196 -0.25316 -0.38631 0.069219 -0.24268 -0.41768 -0.078992 0.49443 -0.28916 -0.56039 0.26702 -0.29837 0.113 0.17576 -0.28574 0.36041 -0.29818 0.61737 0.27526 -0.26914 -0.44382 -0.38102 -0.29324 0.099298 0.5509 -0.010322 -0.53011 0.56377 0.20849 0.47083 -0.31987 -0.36777 0.23428 0.15628 -0.24987 0.12551 0.49363 0.17734 -0.1449 0.2895 0.18526 -0.55477 0.26476 0.38521;
 -0.58006 0.25259 -0.0658 -0.4248 -0.14081 -0.1216 0.264 0.6241 0.0047592 -0.19473 -0.033191 0.40859 -0.19932 -0.15996 0.54248 0.088851 -0.089715 0.079585 -0.21052 0.19553 0.057173 0.17852 0.20958 0.36246 -0.9059 0.28398 -0.021963 -0.31215 -0.00072949 -0.062115 0.47244 -0.58818 0.22222 -0.045083 -0.36133 0.22816 -0.58153 -0.47777 -0.58404 0.46269 0.37188 0.037536 0.43966 -0.55304 -0.24566 0.15955 0.33803 0.20535 -0.028731 0.33327 0.011392 -0.36799 0.14112 -0.042178 0.53435 -0.33607 0.11041 0.21276 0.30059 0.21607 -0.40902 0.24734 -0.58248 0.5816 -0.046346 -0.27794 0.67797 0.67574 0.69441 -0.47691 0.29527 -0.063932 -0.22124 0.43127 0.099082 0.25252 -0.25168 -0.59811 0.72785 -0.49068 0.45316;
 -0.32579 -0.30826 -0.48095 -0.50047 0.28749 0.11135 -0.19385 0.74663 -0.26832 0.27786 0.046482 0.39393 -0.0082551 -0.07447 0.42821 -0.15522 0.47064 -0.29148 0.17201 0.092931 -0.27038 0.30176 -0.093565 -0.099398 0.13513 -0.2066 0.067406 -0.094663 -0.5171 -0.45161 -0.44754 -0.41043 -0.19896 -0.38717 0.57962 -0.23083 0.28282 0.24356 0.084294 -0.02737 0.45191 0.23988 -0.31777 0.45854 -0.42256 0.050105 -0.14585 -0.043402 -0.52416 0.57509 0.60253 -0.48947 -0.17693 -0.18251 0.094212 -0.40236 -0.2832 -0.45925 0.15882 0.11569 -0.22133 -0.056755 -0.063864 -0.2868 -0.54401 -0.6039 0.22566 0.58556 0.61581 -0.022681 0.40428 -0.69427 0.3179 0.3175 -0.61155 0.54399 0.25873 -0.058884 -0.56812 0.32274 0.5294;
 0.18602 0.54685 -0.5738 0.40153 0.4331 0.092941 -0.45526 0.56619 0.48591 -0.2243 -0.49238 0.23613 0.20532 0.11988 -0.2587 0.63543 0.078806 0.028052 0.15589 -0.68791 0.1956 -0.23586 0.22997 0.023639 0.15911 -0.37453 0.49034 0.099958 -0.51833 0.081989 -0.5388 0.40756 -0.47204 0.53885 0.1992 0.11391 -0.58344 -0.23302 -0.32192 0.10272 0.12118 0.34062 0.16179 -0.039941 0.039123 -0.45826 -0.011077 0.54508 0.15634 -0.15107 0.32401 -0.23643 0.55321 -0.056348 0.30358 0.19595 -0.57597 0.052754 -0.034341 0.084569 0.047028 0.21642 0.43605 0.11461 0.57045 0.19333 -0.21803 -0.22559 0.65481 0.12913 0.078594 -0.64764 0.38225 0.20655 -0.53963 -0.34515 0.13241 -0.48821 -0.74256 -0.024306 -0.4431;
 0.17984 -0.35438 -0.25721 0.45742 -0.011028 -0.57547 -0.43119 -0.47766 -0.4219 -0.10479 -0.50898 -0.41784 -0.55614 0.11865 0.15145 0.64304 0.17553 0.13264 -0.13254 0.14538 0.059857 0.33911 0.26692 0.083373 0.71117 0.24581 0.5279 0.24051 0.23209 0.30883 -0.39636 -0.4769 0.55461 0.21384 -0.46758 0.13898 0.41692 0.41185 0.48322 -0.31233 -0.30228 0.4814 -0.50615 0.4612 0.054045 0.27113 -0.48547 0.025716 0.64769 0.0029221 -0.25379 -0.58617 -0.58247 0.20032 -0.1117 0.30311 -0.26575 0.1734 0.47462 -0.59727 -0.31738 0.23726 -0.075967 0.0052216 0.052917 0.21993 -0.066248 -0.36417 -0.056944 0.50939 0.39133 0.33853 -0.40173 -0.16706 0.12267 -0.25658 0.31133 -0.04499 -0.1505 -0.54292 -0.034464;
 0.42045 0.5023 0.23466 -0.084944 0.31431 0.12942 0.061203 0.56037 0.15823 0.31961 -0.21939 0.23913 0.45605 -0.37207 -0.4358 0.12825 0.09994 -0.31281 0.2509 0.34825 -0.5111 -0.30204 -0.0035402 -0.2488 -0.02365 -0.039646 -0.21784 0.011204 -0.41038 0.29867 -0.17614 0.11565 -0.051974 -0.18954 0.5226 0.093509 0.50039 0.34955 0.22582 0.39914 -0.42506 0.24209 0.24486 0.0087145 0.4333 -0.51838 -0.58401 0.52724 -0.11758 -0.26046 -0.62608 0.35231 0.44748 0.022231 -0.59374 0.29052 0.16097 0.15495 0.51415 0.55887 0.2071 0.2462 -0.19528 -0.27922 0.00258 0.53956 -0.06979 -0.25372 0.18816 0.4677 0.55497 -0.63374 0.37627 0.22328 0.3856 0.10815 -0.33599 -0.29149 0.78496 -0.10203 -0.44069;
 -0.35881 0.2823 0.15254 0.34104 0.39913 -0.48553 0.71327 0.19358 0.32537 -0.44966 0.36418 0.28792 -0.069285 -0.2231 -0.1085 0.22988 0.28585 0.21687 0.18551 -0.37564 0.27009 -0.1979 -0.40813 -0.18604 0.16958 -0.51829 0.52935 0.3326 0.024208 -0.30675 0.5009 0.40354 0.14068 0.46882 -0.25742 0.11828 -0.48702 0.37852 -0.35171 0.29302 -0.43538 -0.4926 0.28188 -0.27287 0.3357 0.31258 0.19917 0.45689 -0.30113 0.61387 0.42497 -0.47792 -0.18818 0.2211 -0.30101 -0.59978 0.051102 -0.63699 -0.30982 -0.41732 -0.060989 0.3416 0.50343 0.059162 -0.02503 -0.37466 0.38192 0.19887 -0.28228 0.45493 0.52372 0.0030166 0.080857 -0.32175 -0.064843 -0.11316 0.79013 -0.17666 -0.50058 -0.30185 0.50988;
 0.4581 -0.62127 0.13669 -0.026157 0.24188 0.42743 -0.1928 0.28406 -0.17813 0.35783 0.20925 -0.6113 0.2949 0.1973 0.63857 0.076278 0.55432 0.27747 -0.56529 0.060643 -0.40651 -0.15782 -0.48218 0.3177 -0.065176 0.61466 0.48587 -0.17928 -0.035539 -0.050224 -0.39709 -0.0029935 -0.13589 0.39397 0.15613 0.41622 0.18906 0.60714 0.20335 0.061951 -0.26129 -0.20726 0.43174 0.23707 0.29613 -0.44204 0.39702 0.0053233 0.22502 -0.10086 -0.26721 0.064546 -0.52613 0.036304 0.27461 0.57768 0.059975 0.51563 0.13016 0.38862 0.47092 0.56724 -0.5156 -0.056902 0.19909 -0.42047 -0.60305 -0.45568 -0.40393 0.36663 0.25076 0.11119 -0.41552 0.078528 0.58115 0.059686 0.031584 -0.067905 -0.4764 -0.58966 -0.35195;
 -0.042518 -0.00049876 -0.47034 0.37478 0.0073319 -0.39826 -0.52902 0.35207 0.23997 -0.4174 -0.38849 0.083517 -0.40802 0.16126 -0.52545 -0.19405 -0.59815 -0.28948 -0.46225 0.40937 0.28763 0.45461 0.21143 -0.46498 0.053308 0.19838 0.28991 -0.42563 -0.12219 -0.34686 0.53636 0.39487 0.059061 0.24776 0.47756 -0.28237 0.19263 0.3808 0.32803 -0.11405 0.40391 0.16118 0.41951 0.46291 0.3169 -0.53164 0.18819 -0.4916 -0.25875 -0.48374 -0.30018 0.31007 -0.24525 -0.3408 -0.46967 0.51592 0.27232 0.45073 0.46602 0.42963 0.44856 0.33662 -0.11112 -0.1413 -0.35964 0.43764 0.035501 -0.54309 -0.084735 0.45989 0.57509 0.038969 0.33564 0.33797 0.34385 0.27578 0.22048 0.27592 -0.52023 0.14535 0.20891;
 -0.55387 0.29041 -0.12953 0.2176 0.35559 -0.32164 0.44452 -0.57728 -0.60717 -0.062245 -0.49861 -0.010797 -0.10634 -0.096008 0.4774 -0.25242 0.29989 -0.23774 -0.20104 -0.43572 -0.72888 -0.11295 0.67726 -0.17775 0.40488 -0.2113 0.49531 -0.31909 -0.017973 0.1531 -0.19391 0.65 0.64048 0.19317 -0.48916 0.15287 0.18158 0.37246 0.3475 0.57386 0.10078 -0.3207 -0.44338 0.26121 -0.27586 -0.17776 -0.57647 0.33582 -0.072862 -0.21237 0.54275 -0.13801 -0.41833 0.17018 0.39359 -0.081036 0.36177 -0.12208 -0.2338 0.50326 0.42683 -0.29511 -0.39986 -0.19404 0.30223 -0.50727 -0.42923 -0.15503 -0.51394 0.60794 0.56816 -0.33758 0.20211 -0.039087 0.35266 -0.19426 -0.13686 -0.41654 -0.66566 0.37285 0.0091784;
 0.020452 -0.11547 0.33269 0.3 0.14415 -0.53067 -0.58056 0.30328 0.20601 -0.52728 0.47982 -0.13667 -0.21382 -0.47589 0.22521 0.37556 -0.27572 -0.27177 -0.26348 -0.11967 0.013713 -0.13324 0.2777 0.18704 -0.41009 0.48095 0.15988 -0.40783 -0.2422 0.67211 0.088255 -0.18337 -0.23991 0.17771 -0.16079 0.34487 -0.15092 0.5802 -0.58421 0.19302 -0.34674 -0.26914 -0.37317 0.19261 0.54945 0.201 0.27446 0.10392 0.13846 0.20176 0.12012 -0.69411 -0.24656 -0.50008 -0.038873 -0.57907 0.60341 0.074776 -0.17206 0.18365 -0.43109 0.63178 -0.65573 -0.47826 0.29453 -0.18549 -0.65821 -0.51491 -0.066827 0.49881 0.33312 0.1668 0.13445 0.13751 0.32004 -0.56084 -0.28594 -0.2457 0.82593 0.23846 -0.47837;
 -0.35625 0.0013769 0.36843 -0.052109 0.53842 0.22015 0.27071 0.21196 -0.34163 0.44363 0.17492 0.644 0.1502 0.32032 0.53542 0.12091 0.23819 -0.12497 -0.19715 0.24414 0.51066 0.36586 0.36836 0.11312 -0.032133 0.13226 -0.55508 0.16677 0.33913 -0.29459 0.46823 0.027248 0.12554 -0.16127 -0.55974 0.28381 -0.066237 0.11817 0.40669 -0.32068 -0.049992 -0.32172 0.12612 0.18449 -0.33098 -0.20323 0.41408 -0.35736 -0.6735 0.42327 0.10416 0.1271 -0.001697 -0.39835 -0.074415 -0.14649 0.54354 0.47852 -0.30635 -0.059454 0.15582 -0.30254 -0.55753 0.34818 0.58488 -0.30162 0.24174 0.027194 -0.26286 -0.69107 0.39186 -0.7321 0.076569 -0.26175 0.25992 0.37111 -0.48021 -0.60528 -0.12154 0.067888 0.095708;
 0.36639 -0.46528 -0.29786 0.085082 0.58431 -0.35114 -0.46548 -0.15872 -0.32321 -0.40023 0.36351 -0.21506 -0.33419 0.44528 -0.15922 0.025363 0.42714 -0.45311 -0.27276 0.6611 -0.014037 -0.35989 0.33249 -0.088554 1.0381 0.23812 -0.60727 0.54335 0.55826 0.56929 -0.043941 -0.086427 -0.17151 -0.49859 0.53775 0.40152 -0.013787 -0.50061 0.04986 0.46714 0.062578 0.1099 0.43368 -0.52869 -0.48406 -0.41218 0.62618 0.35692 0.56595 -0.19425 0.19976 0.38674 0.34973 -0.27334 0.5378 -0.39312 0.38608 -0.16113 0.51181 -0.5176 0.29638 0.036676 0.33342 0.04554 0.026611 -0.28785 0.20967 -0.46143 0.3838 0.028136 -0.0033043 0.43537 0.12669 0.089128 0.052767 0.0083342 0.052546 -0.034057 0.1624 -0.33751 0.074137;
 -0.0025647 -0.25202 0.073114 -0.14478 0.5967 0.054481 -0.24829 -0.039454 0.20351 0.12064 -0.3601 -0.54615 0.31834 -0.36892 -0.14338 0.32963 0.57802 -0.058925 0.53866 -0.48954 -0.32985 -0.35688 -0.3146 0.18123 -0.21995 -0.16964 -0.242 -0.10896 -0.0095806 -0.48664 -0.52581 -0.013155 -0.37124 -0.62305 0.52773 -0.41392 0.49483 0.16995 -0.23677 0.31173 0.051148 0.19109 0.37035 0.46022 0.24763 -0.55324 0.20643 -0.039969 -0.32268 0.28605 0.35516 0.25676 -0.087235 0.43182 -0.071745 0.52786 0.23195 -0.34677 -0.41061 -0.35272 0.62827 -0.29864 -0.016442 0.27166 -0.033219 0.19058 -0.48462 0.64151 0.014161 0.0098228 0.45609 0.02064 0.31062 -0.44297 -0.62365 0.562 -0.5735 0.59991 -0.52716 -0.31021 0.30249;
 0.33533 -0.38036 -0.19489 -0.17679 -0.34497 0.3274 -0.20102 -0.11176 0.098247 -0.35294 0.059849 -0.45901 0.12824 0.2196 0.10969 0.58481 -0.11328 -0.11395 0.30096 -0.13511 0.38704 -0.54548 0.46858 0.31427 -0.27591 0.16734 -0.50113 0.072279 -0.20621 -0.42337 -0.65232 0.053214 0.1215 -0.42666 0.022781 -0.43238 -0.041815 -0.34875 -0.50414 0.016121 -0.27466 -0.38065 -0.43952 -0.11378 0.36286 -0.50856 0.081018 0.037376 0.25097 0.50187 -0.48736 -0.21388 0.37391 0.53788 0.62513 0.13685 0.33915 -0.13699 -0.61463 0.042413 0.3921 0.18199 -0.38113 -0.11501 -0.47116 -0.4989 -0.22375 0.025689 -0.43491 -0.35917 0.25514 -0.36768 0.61367 0.0815 0.57698 -0.47403 -0.27023 -0.42284 -0.66916 0.28188 0.48801;
 -0.49342 -0.43153 0.45177 0.072429 0.0038643 0.32417 -0.49065 0.058081 0.069128 -0.048377 0.10727 -0.037326 -0.14598 0.10547 0.3748 0.21892 -0.40718 0.15372 -0.054115 0.44544 0.5053 0.54068 0.58099 -0.48352 -0.35743 -0.26328 -0.5948 0.28074 0.21129 0.06268 0.30223 0.52639 0.11308 -0.08035 0.58619 -0.42332 -0.18663 -0.49204 -0.49454 -0.51949 -0.19927 0.2018 0.27867 -0.49942 0.13503 -0.31948 0.22605 -0.25228 0.41604 0.01155 -0.14887 0.48689 -0.4447 0.18547 0.22024 0.49 0.39307 0.4234 -0.57722 -0.59789 0.52886 0.053231 0.24726 0.50927 0.1674 -0.21184 -0.52414 0.18861 0.16589 0.28283 0.44083 -0.22872 -0.089503 0.17877 -0.43461 0.10032 0.17914 0.60202 0.078316 0.59784 0.40738;
 -0.07506 -0.12619 -0.55252 0.12884 -0.087396 0.043337 0.40513 0.086918 0.045652 -0.32236 -0.056198 0.28382 -0.35727 -0.48122 0.10606 -0.074318 0.23664 -0.76112 0.13983 -0.44853 -0.20505 0.31549 0.38348 0.47175 0.52363 0.48485 -0.43542 0.54015 -0.34008 0.50583 -0.6577 0.32243 -0.3044 -0.14545 -0.58837 -0.26586 0.0063452 0.55023 -0.21125 0.20079 0.067352 0.078123 0.62565 0.24073 0.24486 -0.56679 -0.57964 0.71347 -0.26857 -0.15991 0.15319 -0.43458 -0.32812 0.18458 -0.1272 -0.075349 0.054526 0.10317 0.19258 0.041273 0.45839 -0.45163 0.41166 0.27934 -0.15921 -0.06318 0.33563 -0.52103 -0.28708 0.5598 -0.26906 0.70751 0.085539 0.1435 -0.061042 -0.076827 0.66101 0.061247 -0.0075396 0.59882 -0.1887;
 0.3122 0.089737 -0.30074 0.48861 0.049171 0.46606 0.58056 -0.31092 -0.44811 0.21716 -0.31634 0.16419 0.51539 -0.00086687 0.52706 0.54933 -0.45217 -0.026762 -0.40478 0.49754 0.42642 -0.016718 0.20241 0.50856 0.23617 0.091519 0.1969 0.2952 0.36232 0.47191 -0.48674 0.36834 0.4023 0.55027 -0.1283 -0.47511 -0.068669 0.28274 0.54633 0.0555 -0.046511 -0.40801 -0.11522 0.46724 -0.12182 -0.21388 -0.11296 -0.050509 0.28393 0.037665 -0.058935 0.24148 -0.24859 -0.049606 0.55147 0.5508 -0.4888 -0.47762 -0.024624 0.58874 0.57203 0.54069 0.52948 -0.15373 0.26521 -0.16343 -0.27753 0.1315 0.41179 -0.22047 0.43425 0.44869 -0.2391 -0.36138 0.53366 0.64733 -0.24028 0.1435 0.18998 -0.38932 0.29986;
 0.43388 0.10963 0.074866 0.17848 -0.39457 0.20618 -0.34511 0.60395 -0.52692 -0.094896 0.094542 0.2738 -0.23347 -0.4558 0.32785 0.6727 -0.23384 -0.11534 0.37314 0.18777 -0.55907 -0.22793 -0.20243 0.49549 0.33718 0.23804 -0.094279 -0.0094235 0.027294 0.25886 0.56128 -0.034769 0.0040402 -0.39251 -0.32947 -0.48443 -0.58178 0.056327 -0.40676 0.57455 -0.47737 0.48517 0.36401 -0.13539 0.21603 0.43301 0.02873 0.23692 -0.4867 0.11464 0.24067 0.29905 -0.052001 0.32472 0.52412 -0.058263 -0.4722 -0.46311 0.11384 -0.44349 -0.10558 -0.41366 0.16425 -0.48507 0.4745 -0.098382 -0.28255 0.28651 -0.17741 -0.43835 0.35528 0.57061 -0.020482 0.33499 0.5891 -0.16052 0.60728 -0.16506 -0.22019 0.41534 -0.3438;
 0.082796 0.38112 -0.32641 0.18283 -0.28246 -0.11694 0.38751 -0.29914 0.46796 0.45256 -0.54856 0.021124 0.057437 0.17942 0.4835 -0.054877 -0.5898 -0.93987 -0.33473 -0.28725 -0.43365 0.47216 0.41258 -0.047301 1.012 0.40402 -0.49225 -0.26316 0.30799 -0.28738 -0.13779 -0.092524 -0.15864 -0.34942 -0.67927 0.1852 0.2975 -0.085455 0.018628 0.46074 0.559 0.15701 0.15092 0.15032 0.67283 -0.20864 0.32262 -0.1394 -0.41265 0.20409 -0.57343 -0.1432 0.30949 0.28623 -0.023763 0.45574 -0.36385 -0.057508 0.063207 0.20436 0.59626 0.52171 0.2278 0.48002 -0.39158 0.076874 0.11085 -0.033951 -0.57142 -0.087443 0.29062 0.44187 0.38113 0.27938 -0.26856 -0.27552 0.044126 0.4187 0.56919 -0.19328 -0.13064;
 -0.12294 0.53793 -0.35611 -0.48178 -0.58291 0.001915 0.16145 -0.011099 0.25496 0.41043 -0.34385 0.33424 -0.1429 -0.35805 0.43745 0.1659 -0.62461 -0.23851 -0.14112 -0.2013 0.53826 0.32632 0.054237 0.018981 -0.67252 0.42757 0.19098 -0.4158 0.24072 -0.11926 -0.62795 0.46381 -0.26393 -0.58866 0.23577 -0.5768 -0.08445 0.21993 -0.30173 0.31895 0.20647 -0.23575 -0.17725 0.48683 0.097063 0.49577 -0.47558 -0.41822 0.12931 -0.037738 0.23603 -0.46654 0.057569 0.48543 0.1306 -0.16223 0.53312 0.33945 0.2625 0.067741 -0.22455 0.55722 0.29198 0.55992 0.23585 -0.3756 -0.025815 0.11965 0.35581 -0.4369 -0.57076 0.20657 -0.32282 -0.10163 -0.16407 -0.039151 0.39557 0.07371 0.011198 -0.49179 0.38395;
 -0.53989 -0.32266 0.27203 -0.57585 0.15076 -0.83077 -0.5702 0.059896 -0.48977 -0.43871 0.37931 0.58123 0.11002 -0.50343 0.011425 0.096747 -0.022743 -0.59201 -0.35183 -0.31327 -0.42244 -0.26824 -0.19365 -0.45657 0.16588 0.24958 0.20415 -0.031164 0.28353 -0.20492 0.50268 0.52723 0.072538 0.33284 0.24009 -0.12029 0.20613 0.42701 0.2718 0.2091 0.39731 -0.25555 -0.27242 0.48591 -0.49185 0.11422 -0.37603 -0.54961 -0.11523 -0.19018 0.18424 -0.20519 -0.61816 -0.43793 0.27876 0.10758 -0.084365 -0.18238 -0.33599 -0.57849 0.30817 0.15199 0.35226 0.47642 0.64624 -0.17459 0.10694 0.21652 -0.23629 -0.18955 0.22994 -0.47736 -0.45177 -0.47452 0.46013 0.17416 -0.61874 -0.31369 0.56737 -0.31675 -0.3702]

